22.5379765963
48.7207550816
-14.4110487826
30.1638767818
-24.6350429102
13.3181797109
-41.890642494
41.4637903214
7.53208787769
-3.68120777903
-27.5440390055
-37.969830946
15.5138351807
16.1780607802
42.6133190479
47.1630685121
30.2056658833
27.0949144259
31.7824447141
3.22682020415
26.1110400476
-7.90090185923
-36.0172951493
34.8027585788
-26.6745718076
-32.1949378045
-40.9716140997
-48.1277986727
31.292782177
24.3208766452
-34.5702090914
1.38647495359
-31.812279919
48.3070315596
-12.5326996596
-26.0513675833
-10.3692785191
-29.3123733553
-5.80662625107
-42.9603887917
42.2793002196
39.7977253085
3.61480184484
0.842501014191
9.86488426695
-4.37543213493
-0.833550736374
-37.8987489972
-5.40002852445
-14.8213377004
-42.0929584482
-48.4740040403
-23.2047078141
5.50339962522
41.0374501316
-20.5955760548
45.5058009796
42.9148450811
34.1475037281
-0.451774028564
42.7852062592
-2.99094955762
-23.0697360812
-9.57074645508
24.8427686137
-19.2005400409
24.966722032
-11.8413627126
-38.006490914
39.496982586
28.4536145268
-3.19396529499
-22.4377212033
49.9295486042
17.4299316657
6.15172923161
30.4435306276
-34.1475897471
-9.72495656779
-7.46170496353
-7.73952822219
-17.5417220273
-22.7840546325
-6.87054737715
28.931474192
-33.7126193859
-46.4277961477
-8.892770897
-30.990905868
-35.1327863892
6.61236344037
-42.4039521512
20.8365121192
-22.8016893858
43.8332683704
-1.86388277853
22.0189685632
-19.6840008111
-12.4998491007
-21.057903063
35.5778110534
-44.6234193006
8.50439792736
6.45450296943
21.9113420914
-32.6869901873
8.25160354699
3.16775394814
-12.8394836799
9.08009369713
8.83293632582
11.9890406944
-15.4133037527
24.2467332969
25.3148354136
35.4151503452
-5.41393514914
-19.5846840321
31.0869990975
-17.1753539341
38.61560909
-41.8420601867
-19.2928632287
-42.9345555934
-0.0166453316269
37.0877869229
37.5469209541
20.1859678181
-1.51796627139
-27.5879402201
-22.937673641
-30.6292362559
-32.8574417628
-19.8793170633
23.3422696591
-31.9122413702
-40.3701804542
8.74101241607
-33.5833094407
-16.9522622847
33.9785563674
-20.8917815756
32.715660051
46.4836512161
14.9444936541
-33.2830758579
11.8405289969
-15.8559365825
48.6718479651
-16.0853606653
10.7065697698
-1.1487947148
39.7943065825
-15.6846432316
-36.9362905623
-31.0545023245
-45.9357308088
16.2294402246
30.4134553217
44.2618580718
44.4171065589
3.12987508524
1.95415600078
48.8324546793
-2.89358089303
24.3941891334
-40.7581290689
-30.1837350541
38.2730267737
-7.45238058213
-22.9834333368
-17.8628251739
-45.905174898
0.401400688586
12.6798622849
26.6072027849
-6.9323197082
-19.6847995293
38.1496931001
-23.4139920222
31.0147897827
24.9497734197
-31.5671485957
45.051636569
37.1968064364
-42.5148892023
23.5187660432
-23.7629741202
-48.1258842771
3.2249255497
16.1407081529
-11.7432575301
-5.28578932724
6.29930758553
24.0038427853
29.145566262
34.0427385202
-20.4605588668
23.7207611792
49.1018322798
32.5396650639
-5.01832186396
4.31289419834
-12.0731431485
-43.199579364
-28.1918112794
-14.9012857687
44.8843066685
13.6798506726
-16.5825252406
4.25311913458
29.2804991576
-31.2542810227
-20.4385129179
-7.58693033759
-39.024577843
39.642708566
46.3667967467
-32.1004196078
26.3711131662
-33.7984791968
-24.468542825
-13.3629230788
-28.4443046577
-44.3366174664
-17.7353429175
-31.1612410069
21.4728790203
16.9831794272
12.601897848
-15.4211449606
-0.401289815068
-41.2688411756
-26.0188951997
-47.0838838732
-7.75481182714
9.26298845858
-13.673561895
34.6643980254
43.0523401886
24.411564547
-47.6630098771
-36.4252520511
-18.0876679726
-12.3322887547
19.3968095607
-7.60840086929
-41.5954554425
12.8293505073
-48.8354643865
39.4826831349
46.3847853171
-6.7978573893
19.1603081905
5.77334829244
-40.0092533643
21.6063984888
-45.0502198021
-31.9689045402
-43.7527544848
-25.7052263543
24.4150351377
36.5249336151
39.2424436804
31.0380492698
-42.5057638213
40.071870368
-15.4672045925
12.6779731468
-16.0155987209
-13.6126314834
21.930803225
32.2211765331
17.65639587
-25.3655198161
-33.2824364712
-32.6172745635
9.275917691
3.19613612517
-47.8663767846
-19.3170603982
5.16068754856
47.050752457
-42.096865287
6.34052121216
16.8756189635
-44.9510995584
41.6108823287
27.3365124179
43.3831853494
-4.19945514818
14.7966215939
43.1513067464
30.4308861313
-47.578427267
31.5013792967
-6.63993098552
-17.838459849
9.47561110058
22.8670462202
21.8385479915
24.0783927446
-10.0364691296
-15.7510220915
-3.29868703454
-42.2520933515
-39.5011760434
20.4247328409
0.742475947747
-42.4753802726
47.501192423
47.0087672438
0.646922876625
0.0648340145662
8.29439527463
22.8560392014
21.5669748264
-17.7409197032
43.1964427967
-46.5206308698
-3.04038255063
-10.5199743441
-11.1138464392
-28.9549703349
-39.1984935163
14.3236232304
-49.3235714124
38.3939519668
48.3375168523
20.7701423634
21.2550800755
-45.6979509432
-47.6184415255
-22.8224254475
-5.37123307395
-32.9674518097
11.7202535662
48.5165870306
45.2940344253
-38.5936276178
-24.5001115885
-32.994643918
22.4886244138
-28.1675092021
33.5730729001
9.98300474705
-1.04980262839
-45.0277364923
-28.873569393
45.1500994218
37.2672837184
-3.38624659629
32.4200205119
-7.18779756532
0.248814139289
-39.6007097202
31.8675851966
7.15348629159
43.527816563
39.4566368605
-44.8342557216
-47.9384442698
21.7869292803
35.4060788849
-39.3160921428
11.4241382315
-16.4443413227
40.3683921799
-15.0096261109
-37.5494960064
30.1346259836
-24.635003515
7.38072902119
30.0348540847
24.9416634047
1.60433653773
-17.3733857854
41.3503306918
33.6949137936
-3.98517267741
-11.0251951881
-34.8704738374
16.6754194354
38.4055991461
-49.0477256118
19.1549519909
-9.02980567816
39.6307694429
37.9219998417
32.4241838968
-0.867088315544
12.7847409798
26.5664864716
41.1608455423
43.7401267546
14.7890942304
-14.3928021705
-49.5847941699
-43.2446857695
-33.3699506696
47.7329473842
11.1903827444
-31.2640551783
-21.4686022388
-32.8618755149
39.2005442463
-44.9094263626
-29.9428974644
-12.9803823942
17.2044618421
31.6673008695
31.9150399155
-0.798873534522
-31.4925655983
-8.14352480507
43.0246580345
49.0249922502
-40.3068530199
-40.3976680479
37.3477803906
-0.151933097667
-4.93856778455
-37.3096848002
39.568945925
-34.0064146888
-38.8908548422
8.25656712895
36.1774003787
-37.3118013651
-25.4933150757
24.2294305827
-0.688724668482
-14.4739240733
47.815011854
-48.1885023208
-8.84978649894
10.8402301325
-7.04812887487
-18.1808231616
15.8440788381
-46.8425538151
-13.314823788
-4.0322619129
29.490888001
3.1631325479
2.84338427655
-35.9075474604
-5.45053394115
-13.8421730267
-9.45519191835
11.3795655086
-40.4782313655
27.3430256689
18.8827206928
25.9686135391
-24.5596243149
33.0122413778
45.9717642604
-28.2705942222
-17.4697001984
-16.1312277592
-43.5397341814
38.355765983
-12.40606607
5.6597349228
28.5236145091
19.6967943182
-30.2291021505
-48.5155302855
0.924157885633
9.34926035131
-25.8585144539
-45.4368288449
-39.2795838426
16.8227126761
-15.7029609763
21.5507913052
6.70987354008
-15.2859384636
-34.5418255873
-35.6230570814
-33.5806666886
29.898914291
-49.1733241836
-18.6740802809
43.7522555188
-17.4959676812
28.055379585
-34.8127225058
-11.5915481171
-8.88304508501
18.499050997
18.0199469383
40.3365995107
-27.0877310413
3.54817439702
2.57770694583
49.0975662233
-17.8176103663
33.8406614116
